<?xml version="1.0"?>
<opencv_storage>
<opencv_ml_svm>
  <format>3</format>
  <svmType>C_SVC</svmType>
  <kernel>
    <type>RBF</type>
    <gamma>5.0000000000000000e-01</gamma></kernel>
  <C>10.</C>
  <term_criteria><epsilon>1.1920928955078125e-07</epsilon>
    <iterations>1000</iterations></term_criteria>
  <var_count>256</var_count>
  <class_count>2</class_count>
  <class_labels type_id="opencv-matrix">
    <rows>2</rows>
    <cols>1</cols>
    <dt>i</dt>
    <data>
      0 1</data></class_labels>
  <sv_total>2</sv_total>
  <support_vectors>
    <_>
      3151. 422. 569. 391. 425. 99. 386. 541. 817. 143. 133. 147. 389.
      86. 506. 917. 378. 68. 91. 70. 76. 19. 70. 93. 355. 68. 93. 86.
      329. 67. 531. 466. 514. 91. 86. 64. 97. 21. 60. 61. 136. 25. 21.
      21. 102. 25. 62. 83. 340. 55. 56. 55. 65. 20. 62. 79. 492. 97. 60.
      72. 522. 119. 348. 390. 392. 80. 90. 73. 72. 21. 69. 93. 132. 29.
      25. 32. 72. 18. 96. 171. 86. 19. 20. 19. 20. 7. 21. 26. 74. 17.
      22. 21. 61. 21. 103. 133. 351. 68. 55. 60. 66. 15. 55. 79. 137.
      25. 18. 30. 86. 25. 76. 164. 486. 77. 54. 82. 78. 28. 83. 204.
      929. 151. 73. 148. 419. 128. 367. 889. 864. 397. 146. 546. 152.
      86. 159. 948. 180. 87. 30. 96. 82. 74. 95. 605. 135. 65. 24. 96.
      30. 19. 29. 174. 82. 56. 18. 71. 52. 65. 71. 408. 131. 93. 22. 68.
      24. 23. 19. 84. 30. 21. 8. 27. 20. 22. 22. 94. 140. 79. 20. 78.
      26. 23. 28. 166. 89. 78. 21. 86. 62. 103. 78. 486. 378. 342. 105.
      570. 65. 61. 92. 471. 91. 55. 23. 70. 54. 67. 77. 413. 76. 63. 23.
      114. 19. 19. 24. 132. 68. 63. 23. 104. 55. 102. 93. 591. 502. 547.
      60. 348. 92. 110. 71. 394. 84. 69. 20. 77. 72. 102. 80. 460. 956.
      442. 72. 378. 154. 119. 155. 925. 551. 367. 83. 428. 356. 550.
      432. 3607.</_>
    <_>
      3900. 488. 769. 384. 420. 101. 315. 377. 853. 145. 146. 142. 243.
      70. 333. 526. 355. 80. 101. 86. 108. 31. 69. 84. 256. 41. 98. 65.
      348. 54. 544. 336. 654. 109. 199. 101. 101. 21. 83. 213. 125. 25.
      40. 28. 90. 19. 70. 67. 256. 60. 70. 87. 63. 21. 71. 138. 359. 67.
      64. 79. 601. 93. 407. 359. 389. 104. 113. 77. 59. 27. 54. 75. 217.
      54. 30. 43. 51. 22. 69. 118. 81. 24. 18. 19. 20. 17. 13. 36. 71.
      21. 19. 21. 68. 32. 98. 113. 284. 66. 79. 92. 48. 17. 52. 111.
      164. 63. 41. 61. 67. 19. 60. 121. 382. 77. 95. 130. 60. 42. 87.
      313. 545. 151. 78. 180. 384. 149. 324. 828. 948. 322. 146. 402.
      231. 76. 168. 569. 393. 117. 77. 79. 147. 79. 108. 468. 106. 49.
      24. 82. 48. 26. 48. 146. 75. 49. 18. 51. 67. 73. 74. 351. 124.
      122. 49. 92. 40. 27. 45. 97. 52. 20. 19. 24. 25. 19. 35. 114. 80.
      58. 23. 74. 32. 24. 62. 183. 63. 53. 18. 64. 55. 90. 94. 454. 257.
      364. 103. 593. 57. 79. 83. 445. 108. 72. 23. 63. 54. 96. 70. 447.
      47. 48. 16. 101. 17. 37. 18. 149. 62. 81. 16. 84. 82. 281. 108.
      980. 303. 590. 69. 453. 57. 120. 52. 385. 83. 68. 22. 92. 54. 99.
      74. 463. 403. 275. 52. 320. 72. 95. 103. 811. 340. 369. 70. 400.
      319. 912. 325. 4557.</_></support_vectors>
  <decision_functions>
    <_>
      <sv_count>2</sv_count>
      <rho>0.</rho>
      <alpha>
        1. -1.</alpha>
      <index>
        0 1</index></_></decision_functions></opencv_ml_svm>
</opencv_storage>
