<?xml version="1.0"?>
<opencv_storage>
<opencv_ml_svm>
  <format>3</format>
  <svmType>C_SVC</svmType>
  <kernel>
    <type>RBF</type>
    <gamma>5.0000000000000000e-01</gamma></kernel>
  <C>10.</C>
  <term_criteria><epsilon>1.1920928955078125e-07</epsilon>
    <iterations>1000</iterations></term_criteria>
  <var_count>256</var_count>
  <class_count>2</class_count>
  <class_labels type_id="opencv-matrix">
    <rows>2</rows>
    <cols>1</cols>
    <dt>i</dt>
    <data>
      0 1</data></class_labels>
  <sv_total>2</sv_total>
  <support_vectors>
    <_>
      6.37736395e-02 8.54794215e-03 1.15146292e-02 7.91453663e-03
      8.61674640e-03 2.01556599e-03 7.81133026e-03 1.09480042e-02
      1.65393781e-02 2.91002402e-03 2.69956328e-03 2.98287557e-03
      7.88620580e-03 1.74237182e-03 1.02437707e-02 1.85589921e-02
      7.65955541e-03 1.38620753e-03 1.85974420e-03 1.41858612e-03
      1.55417144e-03 3.86519183e-04 1.42060965e-03 1.89212267e-03
      7.20220804e-03 1.37811282e-03 1.88807538e-03 1.75856112e-03
      6.65986724e-03 1.37406564e-03 1.07517084e-02 9.44240019e-03
      1.04036387e-02 1.85164949e-03 1.75451371e-03 1.30323751e-03
      1.97509280e-03 4.33063367e-04 1.22229103e-03 1.23848033e-03
      2.76229670e-03 5.11986145e-04 4.43181663e-04 4.39134368e-04
      2.06615753e-03 5.22104441e-04 1.26883527e-03 1.68975664e-03
      6.88449387e-03 1.11503701e-03 1.14336831e-03 1.11706066e-03
      1.31942669e-03 4.08779451e-04 1.25669327e-03 1.60678662e-03
      9.96248145e-03 1.97914010e-03 1.23240938e-03 1.47120119e-03
      1.05695790e-02 2.41220347e-03 7.05650495e-03 7.90037122e-03
      7.95096252e-03 1.63309404e-03 1.83343654e-03 1.47727225e-03
      1.47322495e-03 4.39134368e-04 1.40037306e-03 1.89009903e-03
      2.67932657e-03 6.03050867e-04 5.24128089e-04 6.47571404e-04
      1.46310672e-03 3.66282591e-04 1.96092715e-03 3.46248341e-03
      1.75249006e-03 3.86519183e-04 4.04732127e-04 3.86519183e-04
      4.14850423e-04 1.51774555e-04 4.29016072e-04 5.44364681e-04
      1.50357990e-03 3.48069647e-04 4.57347312e-04 4.24968719e-04
      1.25062221e-03 4.31039691e-04 2.09651235e-03 2.69551598e-03
      7.11519085e-03 1.39227859e-03 1.11503701e-03 1.22431468e-03
      1.34978164e-03 3.13667406e-04 1.11908431e-03 1.60476298e-03
      2.79062800e-03 5.22104441e-04 3.78424564e-04 6.11145515e-04
      1.75653747e-03 5.24128089e-04 1.55214767e-03 3.32892174e-03
      9.84915625e-03 1.56226591e-03 1.10491866e-03 1.66547275e-03
      1.59464462e-03 5.68648626e-04 1.68773299e-03 4.14040964e-03
      1.88139733e-02 3.07191699e-03 1.48334331e-03 2.99704145e-03
      8.48116167e-03 2.60647503e-03 7.43897678e-03 1.80024840e-02
      1.74945462e-02 8.04202724e-03 2.95656826e-03 1.10593056e-02
      3.07798805e-03 1.74237182e-03 3.22369137e-03 1.91863254e-02
      3.65473120e-03 1.77677406e-03 6.17216516e-04 1.94878527e-03
      1.67356734e-03 1.50155614e-03 1.93866692e-03 1.22573124e-02
      2.74206023e-03 1.32347411e-03 4.87702229e-04 1.95890362e-03
      6.15192810e-04 4.00684803e-04 6.05074514e-04 3.52724059e-03
      1.66952005e-03 1.15146290e-03 3.64258914e-04 1.45501201e-03
      1.06242183e-03 1.32347411e-03 1.44287013e-03 8.25653505e-03
      2.66516092e-03 1.89616997e-03 4.63418284e-04 1.39227859e-03
      4.89725906e-04 4.73536580e-04 3.92590155e-04 1.70392217e-03
      6.11145515e-04 4.24968719e-04 1.78082133e-04 5.58530330e-04
      4.16874100e-04 4.47229017e-04 4.45205340e-04 1.91843032e-03
      2.83919601e-03 1.61488121e-03 4.10803099e-04 1.59666827e-03
      5.30199090e-04 4.65441961e-04 5.74719626e-04 3.37141869e-03
      1.80510525e-03 1.59464462e-03 4.26992396e-04 1.74439535e-03
      1.27288257e-03 2.09651235e-03 1.59464462e-03 9.84510873e-03
      7.65550788e-03 6.92699011e-03 2.13900930e-03 1.15389135e-02
      1.33359234e-03 1.24455127e-03 1.86379137e-03 9.53751244e-03
      1.84355478e-03 1.12920266e-03 4.67465608e-04 1.42263353e-03
      1.09277677e-03 1.36192364e-03 1.56833697e-03 8.37188400e-03
      1.54405308e-03 1.27692986e-03 4.69489285e-04 2.30899686e-03
      3.96637479e-04 4.00684803e-04 4.97820496e-04 2.67123198e-03
      1.39227859e-03 1.27692986e-03 4.71512903e-04 2.11270177e-03
      1.12920266e-03 2.06615753e-03 1.88605161e-03 1.19659053e-02
      1.01769892e-02 1.10754948e-02 1.21419644e-03 7.04436284e-03
      1.87390973e-03 2.22805026e-03 1.45501201e-03 7.99143594e-03
      1.70999323e-03 1.39834941e-03 4.04732127e-04 1.56024226e-03
      1.47524860e-03 2.06818106e-03 1.63714145e-03 9.30883922e-03
      1.93461962e-02 8.95874575e-03 1.47524860e-03 7.66562624e-03
      3.13262665e-03 2.41625076e-03 3.13869771e-03 1.87350493e-02
      1.11584654e-02 7.43695302e-03 1.67963828e-03 8.66126735e-03
      7.20827933e-03 1.11402515e-02 8.75637960e-03 7.29974881e-02</_>
    <_>
      3.70461494e-02 3.50221898e-03 6.36134669e-03 3.57925682e-03
      1.94401597e-03 4.23605263e-04 2.83981650e-03 3.44822998e-03
      1.51181407e-02 1.11943914e-03 1.96540379e-03 1.13958120e-03
      3.20694107e-03 2.89463584e-04 8.81327316e-03 1.52676478e-02
      3.55350855e-03 9.43144725e-04 1.68258511e-03 1.72307668e-03
      3.44698405e-04 9.90488843e-05 5.82041917e-04 7.35910318e-04
      3.91045818e-03 6.30216673e-04 1.63565634e-03 1.63897860e-03
      3.20465700e-03 2.55201419e-04 1.08505245e-02 1.10066775e-02
      6.43360894e-03 1.69795123e-03 1.99322891e-03 9.75330418e-04
      8.06511205e-04 4.82993084e-04 6.94380375e-04 7.24281941e-04
      8.97046470e-04 2.30491103e-04 1.26043335e-04 1.56360184e-04
      7.51484069e-04 1.88130580e-04 7.47954065e-04 5.69167663e-04
      3.56451375e-03 1.80447544e-03 9.19057347e-04 2.35350104e-03
      3.35561839e-04 2.69736891e-04 4.64927551e-04 1.67656329e-03
      9.72610153e-03 1.31359161e-03 8.17516702e-04 1.48012664e-03
      1.46824904e-02 8.07549455e-04 1.90103259e-02 9.07449704e-03
      1.86614739e-03 3.07529146e-04 7.86369259e-04 3.25594650e-04
      4.48730891e-04 1.41409400e-04 6.00522792e-04 3.99725570e-04
      1.88878109e-03 2.69113953e-04 4.42086079e-04 2.42327136e-04
      9.55811294e-04 1.23551537e-04 1.85161189e-03 1.15079433e-03
      4.29419480e-04 9.07428985e-05 4.97528585e-04 2.66414514e-04
      1.38917618e-04 6.18795893e-05 4.08239226e-04 4.66173457e-04
      5.47572155e-04 1.04655424e-04 7.30511441e-04 4.14676324e-04
      3.87474254e-04 7.82839197e-05 1.69961236e-03 1.75713131e-03
      2.82465830e-03 5.76850667e-04 6.88358559e-04 4.92129650e-04
      6.22118358e-04 4.27965919e-04 5.37189655e-04 7.68719008e-04
      9.59549041e-04 3.26009933e-04 1.23551537e-04 2.74720485e-04
      1.08310045e-03 3.25386995e-04 1.06939569e-03 1.29552616e-03
      3.43078724e-03 7.66019512e-04 7.07669940e-04 1.72660686e-03
      3.72315815e-04 4.60359268e-04 7.65604258e-04 4.63224854e-03
      1.57732759e-02 1.02039031e-03 7.88653328e-04 1.94962253e-03
      1.37848221e-02 8.85625719e-04 1.12323919e-02 1.78138483e-02
      1.51640307e-02 4.09318972e-03 9.21341532e-04 1.03581864e-02
      1.91536034e-03 5.41134970e-04 9.70969733e-04 1.61181819e-02
      7.21644843e-03 1.13895827e-03 5.27430093e-04 1.07915525e-03
      2.02915235e-03 5.73528348e-04 1.40890281e-03 3.20029631e-02
      1.12151564e-03 6.22118358e-04 2.45441886e-04 1.34951505e-03
      2.60807952e-04 1.00917721e-04 3.28917027e-04 1.03430287e-03
      1.13771250e-03 5.73528348e-04 3.35146528e-04 1.09036826e-03
      6.28555485e-04 4.20075230e-04 8.78773339e-04 9.77801438e-03
      1.94443134e-03 1.69275992e-03 1.46392995e-04 8.98915285e-04
      4.48315579e-04 6.97495125e-04 1.28742773e-04 8.41396395e-04
      5.32413658e-04 3.46359622e-04 7.72456697e-05 1.51999528e-04
      3.28501745e-04 4.38348419e-04 1.62589684e-04 9.40445228e-04
      1.12026988e-03 1.62485847e-03 1.62174372e-04 1.43361324e-03
      2.62261514e-04 4.40840202e-04 2.76174018e-04 1.93072634e-03
      1.06295850e-03 1.11673982e-03 1.49300104e-04 1.15598564e-03
      6.05921668e-04 9.74084483e-04 8.13571271e-04 9.86024365e-03
      3.11723631e-03 3.23850382e-03 7.73079577e-04 1.60305519e-02
      8.82926339e-04 4.08862135e-04 1.07292575e-03 1.42707219e-02
      2.04223418e-03 6.28763111e-04 3.15419806e-04 6.59495301e-04
      2.26171990e-03 6.57003489e-04 2.20544683e-03 1.16400085e-02
      2.74305203e-04 2.40458292e-04 1.61966716e-04 7.77025009e-04
      1.13376700e-04 8.16063111e-05 3.31824151e-04 9.03483597e-04
      5.72282413e-04 4.22982324e-04 4.52468579e-04 9.49581794e-04
      6.41845050e-04 7.16806622e-04 1.85181957e-03 9.84280091e-03
      8.48726369e-03 9.97258164e-03 7.66227196e-04 2.00010203e-02
      1.83188519e-03 1.73034449e-03 1.03720999e-03 1.17037566e-02
      1.46309938e-03 9.15319601e-04 1.55529589e-04 8.35789833e-04
      2.37156660e-03 1.93134928e-03 1.65662880e-03 1.25758853e-02
      1.59977451e-02 1.03525808e-02 5.56708721e-04 9.30228829e-03
      1.14934077e-03 1.81921851e-03 1.25046622e-03 1.79743599e-02
      3.31375636e-02 1.03156185e-02 9.51035356e-04 1.06416289e-02
      1.13027859e-02 9.88848414e-03 1.25571964e-02 2.05076039e-01</_></support_vectors>
  <decision_functions>
    <_>
      <sv_count>2</sv_count>
      <rho>0.</rho>
      <alpha>
        10. -10.</alpha>
      <index>
        0 1</index></_></decision_functions></opencv_ml_svm>
</opencv_storage>
